<?xml version="1.0"?>
<opencv_storage>
<cascade>
  <stageType>BOOST</stageType>
  <featureType>LBP</featureType>
  <height>36</height>
  <width>48</width>
  <stageParams>
    <boostType>GAB</boostType>
    <minHitRate>9.9900001287460327e-01</minHitRate>
    <maxFalseAlarm>5.0000000000000000e-01</maxFalseAlarm>
    <weightTrimRate>9.4999999999999996e-01</weightTrimRate>
    <maxDepth>1</maxDepth>
    <maxWeakCount>100</maxWeakCount></stageParams>
  <featureParams>
    <maxCatCount>256</maxCatCount>
    <featSize>1</featSize></featureParams>
  <stageNum>16</stageNum>
  <stages>
    <!-- stage 0 -->
    <_>
      <maxWeakCount>3</maxWeakCount>
      <stageThreshold>-1.1966583728790283e+00</stageThreshold>
      <weakClassifiers>
        <_>
          <internalNodes>
            0 -1 32 -539756296 -145493040 -653921825 -136325773
            -796876664 -82705920 -351012869 -67372065</internalNodes>
          <leafValues>
            -8.6844879388809204e-01 4.4367417693138123e-01</leafValues></_>
        <_>
          <internalNodes>
            0 -1 13 -153092097 -144714829 1498535895 -704653185
            -1333079041 -120874613 1078048467 1366816599</internalNodes>
          <leafValues>
            -7.6019144058227539e-01 5.1899313926696777e-01</leafValues></_>
        <_>
          <internalNodes>
            0 -1 48 -1135616 -3992576 -214953891 2140622990 -7542006
            -22380544 -668292466 -4201458</internalNodes>
          <leafValues>
            -8.4720271825790405e-01 4.4736555218696594e-01</leafValues></_></weakClassifiers></_>
    <!-- stage 1 -->
    <_>
      <maxWeakCount>6</maxWeakCount>
      <stageThreshold>-1.8898711204528809e+00</stageThreshold>
      <weakClassifiers>
        <_>
          <internalNodes>
            0 -1 37 -285212673 -69217329 -581445129 -2106405 248221675
            -1900033894 143625215 -805308417</internalNodes>
          <leafValues>
            -7.6504856348037720e-01 4.4873207807540894e-01</leafValues></_>
        <_>
          <internalNodes>
            0 -1 45 -73760582 -1113640782 2077852410 -52553 -1410652482
            -1631644998 -1680889089 -67390801</internalNodes>
          <leafValues>
            -7.5474643707275391e-01 3.9154821634292603e-01</leafValues></_>
        <_>
          <internalNodes>
            0 -1 5 -153103622 -780955310 -711362049 -43523 -252579614
            1902198834 -67897345 2010641407</internalNodes>
          <leafValues>
            -7.9104822874069214e-01 3.6186751723289490e-01</leafValues></_>
        <_>
          <internalNodes>
            0 -1 65 -721235768 -786972536 285229120 1359728648
            -364740405 167774528 323158475 -612384374</internalNodes>
          <leafValues>
            -6.0510045289993286e-01 5.3543233871459961e-01</leafValues></_>
        <_>
          <internalNodes>
            0 -1 3 -554699245 -31739546 -854371842 -541461317 -271399070
            -339762205 -980979136 -540839376</internalNodes>
          <leafValues>
            -5.8592563867568970e-01 5.3742706775665283e-01</leafValues></_>
        <_>
          <internalNodes>
            0 -1 76 -604258602 -1347239206 -50065351 -37785317 200217077
            -610592631 1346441428 -33597187</internalNodes>
          <leafValues>
            -6.7624723911285400e-01 4.6570348739624023e-01</leafValues></_></weakClassifiers></_>
    <!-- stage 2 -->
    <_>
      <maxWeakCount>6</maxWeakCount>
      <stageThreshold>-1.6466417312622070e+00</stageThreshold>
      <weakClassifiers>
        <_>
          <internalNodes>
            0 -1 39 -2108929 -537136161 -711233281 -149753358 -276103237
            -4224565 -57939457 -272417</internalNodes>
          <leafValues>
            -7.0245397090911865e-01 4.5183175802230835e-01</leafValues></_>
        <_>
          <internalNodes>
            0 -1 1 -36176385 -1084539559 -48513025 -131073 -79766789
            1996687374 -242483457 1627505511</internalNodes>
          <leafValues>
            -6.3590574264526367e-01 5.0684720277786255e-01</leafValues></_>
        <_>
          <internalNodes>
            0 -1 68 -249824562 -687737649 319311948 1430385119
            -233180449 302153922 289985242 1465905359</internalNodes>
          <leafValues>
            -6.2761819362640381e-01 4.7258299589157104e-01</leafValues></_>
        <_>
          <internalNodes>
            0 -1 57 -3408385 -1916542465 -677192230 -104860689
            -908068641 -2136213028 1348256981 24377555</internalNodes>
          <leafValues>
            -6.6508215665817261e-01 4.4465574622154236e-01</leafValues></_>
        <_>
          <internalNodes>
            0 -1 21 2071461879 411620531 -1622241067 955568289
            -199792845 1282664603 1936814711 1299675771</internalNodes>
          <leafValues>
            -6.7831707000732422e-01 4.5476150512695312e-01</leafValues></_>
        <_>
          <internalNodes>
            0 -1 74 -1017126754 2006032649 1073868936 1430766698
            -799285074 1782759808 373920475 -746720309</internalNodes>
          <leafValues>
            -5.4720366001129150e-01 5.6689351797103882e-01</leafValues></_></weakClassifiers></_>
    <!-- stage 3 -->
    <_>
      <maxWeakCount>6</maxWeakCount>
      <stageThreshold>-1.6299270391464233e+00</stageThreshold>
      <weakClassifiers>
        <_>
          <internalNodes>
            0 -1 52 -75499041 -548149373 -644523779 -137914532
            -599791363 -1074815521 -1059076904 -536875041</internalNodes>
          <leafValues>
            -7.4757283926010132e-01 2.7326732873916626e-01</leafValues></_>
        <_>
          <internalNodes>
            0 -1 47 -271077409 -34102781 -45875201 -579361001 -877678850
            -1350401656 1338739867 -816083314</internalNodes>
          <leafValues>
            -5.6271958351135254e-01 5.2018350362777710e-01</leafValues></_>
        <_>
          <internalNodes>
            0 -1 71 -129 1886486335 157375611 1886565212 1221459967
            1850597407 -86069317 974289274</internalNodes>
          <leafValues>
            -6.5228599309921265e-01 4.3924489617347717e-01</leafValues></_>
        <_>
          <internalNodes>
            0 -1 46 -17116421 -15583233 -659174413 959458290 -621040909
            -1078296453 -51655685 -1079460097</internalNodes>
          <leafValues>
            -6.0092478990554810e-01 4.7455856204032898e-01</leafValues></_>
        <_>
          <internalNodes>
            0 -1 84 -153093201 170885619 -678179585 767275291 1105322197
            287312441 1311243179 502791127</internalNodes>
          <leafValues>
            -6.5788584947586060e-01 4.7501617670059204e-01</leafValues></_>
        <_>
          <internalNodes>
            0 -1 77 -772023810 -545309313 87911121 1463768874 1493875129
            1292369296 528965055 -337906101</internalNodes>
          <leafValues>
            -5.1228123903274536e-01 6.4051157236099243e-01</leafValues></_></weakClassifiers></_>
    <!-- stage 4 -->
    <_>
      <maxWeakCount>7</maxWeakCount>
      <stageThreshold>-1.6820044517517090e+00</stageThreshold>
      <weakClassifiers>
        <_>
          <internalNodes>
            0 -1 41 -25167873 -132982830 -581493281 -1258232097
            -117440513 -257885198 -11805697 -262145</internalNodes>
          <leafValues>
            -7.2816187143325806e-01 1.9573643803596497e-01</leafValues></_>
        <_>
          <internalNodes>
            0 -1 25 1268776959 1608245115 -1210065985 -132097 16499443
            1806128215 1355380213 2111829943</internalNodes>
          <leafValues>
            -6.5102016925811768e-01 3.3057141304016113e-01</leafValues></_>
        <_>
          <internalNodes>
            0 -1 88 1993865207 1648885735 1234591189 40296771 1909421687
            -1434031993 1406106589 1115127783</internalNodes>
          <leafValues>
            -7.0175743103027344e-01 3.4095162153244019e-01</leafValues></_>
        <_>
          <internalNodes>
            0 -1 33 -42241165 -76342317 -709626405 838889983 -614783399
            -1225566087 -541436929 806483199</internalNodes>
          <leafValues>
            -6.7682898044586182e-01 3.4412610530853271e-01</leafValues></_>
        <_>
          <internalNodes>
            0 -1 49 -1858469774 2138048145 324296031 1037242101
            713789373 -340062241 267099647 -1346421799</internalNodes>
          <leafValues>
            -6.3758140802383423e-01 4.1114011406898499e-01</leafValues></_>
        <_>
          <internalNodes>
            0 -1 4 1289324065 794818034 -1802929761 1305449182 986446840
            -1533312347 -1828326817 1559211935</internalNodes>
          <leafValues>
            -6.9975453615188599e-01 3.7169310450553894e-01</leafValues></_>
        <_>
          <internalNodes>
            0 -1 22 -6330602 -686927049 -228691914 -58727209 2008093244
            2063536162 1526413082 -1183088770</internalNodes>
          <leafValues>
            -6.0222899913787842e-01 4.1793018579483032e-01</leafValues></_></weakClassifiers></_>
    <!-- stage 5 -->
    <_>
      <maxWeakCount>7</maxWeakCount>
      <stageThreshold>-1.6463874578475952e+00</stageThreshold>
      <weakClassifiers>
        <_>
          <internalNodes>
            0 -1 61 -3943938 -671116813 231003133 -545586785 -69040710
            -4325176 151591839 -1611723781</internalNodes>
          <leafValues>
            -7.2923702001571655e-01 1.9613526761531830e-01</leafValues></_>
        <_>
          <internalNodes>
            0 -1 36 -271581185 -1626091730 -1725705771 -652225825
            -1970295122 -342250316 45073658 268420257</internalNodes>
          <leafValues>
            -6.3670623302459717e-01 3.3676123619079590e-01</leafValues></_>
        <_>
          <internalNodes>
            0 -1 53 1908266495 -262665 -708413953 -13904673 -299893827
            -1080049223 -19394561 -1951924216</internalNodes>
          <leafValues>
            -5.6862831115722656e-01 4.3420344591140747e-01</leafValues></_>
        <_>
          <internalNodes>
            0 -1 29 -82327244 -539835682 -713294881 -795938096 528432106
            -140106855 994079742 1378793339</internalNodes>
          <leafValues>
            -6.8595892190933228e-01 3.6745911836624146e-01</leafValues></_>
        <_>
          <internalNodes>
            0 -1 100 2113551586 -15426114 -1036281513 1036997308
            1489629295 531309036 -111950379 366852487</internalNodes>
          <leafValues>
            -6.8535894155502319e-01 3.5230576992034912e-01</leafValues></_>
        <_>
          <internalNodes>
            0 -1 34 -2368769 326881665 907134520 860199067 -355673346
            847939974 -1814175334 318747643</internalNodes>
          <leafValues>
            -6.4745116233825684e-01 3.7738370895385742e-01</leafValues></_>
        <_>
          <internalNodes>
            0 -1 101 -1459671331 -1084243476 30626128 1600123871
            -129530122 -1816449877 994077628 1356272186</internalNodes>
          <leafValues>
            -7.2901397943496704e-01 3.4797510504722595e-01</leafValues></_></weakClassifiers></_>
    <!-- stage 6 -->
    <_>
      <maxWeakCount>7</maxWeakCount>
      <stageThreshold>-1.4307705163955688e+00</stageThreshold>
      <weakClassifiers>
        <_>
          <internalNodes>
            0 -1 75 -203425106 -614491953 51640508 1473237947 -73538629
            2001518985 -713318709 -136318465</internalNodes>
          <leafValues>
            -7.2889339923858643e-01 2.0507812500000000e-01</leafValues></_>
        <_>
          <internalNodes>
            0 -1 89 -419700222 1399255826 -1841105838 -211824441
            1661640708 1397064449 1646981760 -210239505</internalNodes>
          <leafValues>
            -7.3696863651275635e-01 2.5608158111572266e-01</leafValues></_>
        <_>
          <internalNodes>
            0 -1 43 -67386150 -535112350 -718094126 270711718 -2203508
            -1878761340 -1681196405 -714081285</internalNodes>
          <leafValues>
            -6.2496948242187500e-01 3.5627472400665283e-01</leafValues></_>
        <_>
          <internalNodes>
            0 -1 63 -8388739 838881808 -1450608513 842153985 -305275649
            722395619 -606226181 2120906879</internalNodes>
          <leafValues>
            -6.3556087017059326e-01 3.4584432840347290e-01</leafValues></_>
        <_>
          <internalNodes>
            0 -1 14 184260828 -272006784 1494334174 1721758426
            -573638170 -87846725 -485434387 1566568506</internalNodes>
          <leafValues>
            -7.1924698352813721e-01 3.3404153585433960e-01</leafValues></_>
        <_>
          <internalNodes>
            0 -1 82 -716123196 -113452655 167777851 1460502559
            -400118904 54134275 -1287742529 -206861397</internalNodes>
          <leafValues>
            -4.6470063924789429e-01 5.5436706542968750e-01</leafValues></_>
        <_>
          <internalNodes>
            0 -1 83 -103234920 1466174552 1315758389 1362849859
            -1207776046 1504224264 -433746693 -87047521</internalNodes>
          <leafValues>
            -4.6651995182037354e-01 5.7269513607025146e-01</leafValues></_></weakClassifiers></_>
    <!-- stage 7 -->
    <_>
      <maxWeakCount>8</maxWeakCount>
      <stageThreshold>-1.9453645944595337e+00</stageThreshold>
      <weakClassifiers>
        <_>
          <internalNodes>
            0 -1 73 -741343250 1475171263 1386150879 -170459569
            -469243157 -192658492 -250827009 -170918961</internalNodes>
          <leafValues>
            -7.0256751775741577e-01 1.5030060708522797e-01</leafValues></_>
        <_>
          <internalNodes>
            0 -1 90 -303303681 -2040597074 -845678403 -321977393
            1904211447 94869162 -134508049 1442305991</internalNodes>
          <leafValues>
            -7.0051383972167969e-01 2.4502152204513550e-01</leafValues></_>
        <_>
          <internalNodes>
            0 -1 58 -24343308 -12392368 -1073875971 -36463436
            -1439957512 -487696 -390031110 -1726346056</internalNodes>
          <leafValues>
            -6.4520967006683350e-01 3.5073202848434448e-01</leafValues></_>
        <_>
          <internalNodes>
            0 -1 10 -1437692439 1994372541 -782272226 -1301367298
            1404829111 -1820140645 1737018415 1264578494</internalNodes>
          <leafValues>
            -6.2900578975677490e-01 3.7142950296401978e-01</leafValues></_>
        <_>
          <internalNodes>
            0 -1 81 -733441840 1594574864 285264369 1398346585
            -1710647126 -1708457983 -2147406917 -1819571939</internalNodes>
          <leafValues>
            -5.0895148515701294e-01 4.3769016861915588e-01</leafValues></_>
        <_>
          <internalNodes>
            0 -1 40 142597282 -982227183 114417397 -1148857832 231460350
            228156122 95230447 -275777998</internalNodes>
          <leafValues>
            -6.1587589979171753e-01 3.9437320828437805e-01</leafValues></_>
        <_>
          <internalNodes>
            0 -1 0 1912011771 -1610676398 -580546081 -9236213 -161453063
            -182347385 1345467219 1953715827</internalNodes>
          <leafValues>
            -6.4241105318069458e-01 3.6228159070014954e-01</leafValues></_>
        <_>
          <internalNodes>
            0 -1 80 -792538486 1367771379 285542410 -783728049
            -2147244913 -796718710 -2144631857 -750319673</internalNodes>
          <leafValues>
            -5.0381016731262207e-01 4.9297982454299927e-01</leafValues></_></weakClassifiers></_>
    <!-- stage 8 -->
    <_>
      <maxWeakCount>9</maxWeakCount>
      <stageThreshold>-1.7339124679565430e+00</stageThreshold>
      <weakClassifiers>
        <_>
          <internalNodes>
            0 -1 55 -69272066 -4232585 1493177471 1605057143 -16728133
            -3106884 2047032255 -538980353</internalNodes>
          <leafValues>
            -7.0301783084869385e-01 8.6031451821327209e-02</leafValues></_>
        <_>
          <internalNodes>
            0 -1 106 1044049602 -1084239364 -1383467950 664370783
            -78647822 116132781 2033544063 475692410</internalNodes>
          <leafValues>
            -8.1924152374267578e-01 1.5558838844299316e-01</leafValues></_>
        <_>
          <internalNodes>
            0 -1 15 -2105377 989836703 -106984710 -755023457 1463543669
            16246731 -730340399 1958084607</internalNodes>
          <leafValues>
            -7.1974796056747437e-01 2.3948067426681519e-01</leafValues></_>
        <_>
          <internalNodes>
            0 -1 44 -2086145112 -403602814 824308113 2100019266 12759262
            198165033 292270327 -1879583393</internalNodes>
          <leafValues>
            -5.6564855575561523e-01 3.5951790213584900e-01</leafValues></_>
        <_>
          <internalNodes>
            0 -1 85 1513873407 -556279814 18799517 577818847 -1125471765
            -560260897 1056690095 -1207242119</internalNodes>
          <leafValues>
            -4.6363779902458191e-01 4.3712526559829712e-01</leafValues></_>
        <_>
          <internalNodes>
            0 -1 60 -91161968 -9280315 -1542204137 361042439 -82863127
            -1164214092 338576155 185542511</internalNodes>
          <leafValues>
            -5.6625825166702271e-01 3.8811796903610229e-01</leafValues></_>
        <_>
          <internalNodes>
            0 -1 56 -90711381 -150192814 -66611266 -4311858 -1876803408
            -1449357129 -858449704 -67121974</internalNodes>
          <leafValues>
            -5.5456584692001343e-01 3.9661616086959839e-01</leafValues></_>
        <_>
          <internalNodes>
            0 -1 96 -1225328867 867823543 -282134570 2067228636
            -1648885842 -1512177785 494401503 -1619525659</internalNodes>
          <leafValues>
            -4.0910837054252625e-01 5.3671109676361084e-01</leafValues></_>
        <_>
          <internalNodes>
            0 -1 16 -292638799 1624441308 -645834247 1320674973
            771745495 414353809 2028003548 293480749</internalNodes>
          <leafValues>
            -7.3287832736968994e-01 3.1900677084922791e-01</leafValues></_></weakClassifiers></_>
    <!-- stage 9 -->
    <_>
      <maxWeakCount>7</maxWeakCount>
      <stageThreshold>-1.6787177324295044e+00</stageThreshold>
      <weakClassifiers>
        <_>
          <internalNodes>
            0 -1 66 -105655816 -581482529 1170436575 -545701411
            -282201670 -88428393 973979067 -2109477</internalNodes>
          <leafValues>
            -6.8774706125259399e-01 1.3631634414196014e-01</leafValues></_>
        <_>
          <internalNodes>
            0 -1 2 -1903449034 -425798146 185048159 16774594 1434943475
            -957368582 1044020094 1128464212</internalNodes>
          <leafValues>
            -9.1954195499420166e-01 1.2430480867624283e-01</leafValues></_>
        <_>
          <internalNodes>
            0 -1 18 1847729160 -352929636 -714491942 -72442979
            -273760326 -339083750 -119282376 -143313600</internalNodes>
          <leafValues>
            -7.1745288372039795e-01 2.2317723929882050e-01</leafValues></_>
        <_>
          <internalNodes>
            0 -1 103 -1652610334 419847673 1401016798 -723944969
            1005581053 646683022 2134598140 1851653980</internalNodes>
          <leafValues>
            -7.0808076858520508e-01 2.7855378389358521e-01</leafValues></_>
        <_>
          <internalNodes>
            0 -1 67 -212864882 -905713489 -2140643297 -183537636
            -1073225521 269357672 827560123 -212343985</internalNodes>
          <leafValues>
            -4.4248667359352112e-01 4.8605129122734070e-01</leafValues></_>
        <_>
          <internalNodes>
            0 -1 87 -544223080 -1729358544 1833705573 -174762085
            -804862976 -974872460 1145361820 -134950690</internalNodes>
          <leafValues>
            -6.2860047817230225e-01 3.6536031961441040e-01</leafValues></_>
        <_>
          <internalNodes>
            0 -1 7 -24822211 -77803187 -1534746789 -565190502 -120904943
            -485661179 999520863 -88180017</internalNodes>
          <leafValues>
            -5.4591929912567139e-01 4.0314251184463501e-01</leafValues></_></weakClassifiers></_>
    <!-- stage 10 -->
    <_>
      <maxWeakCount>7</maxWeakCount>
      <stageThreshold>-1.3311110734939575e+00</stageThreshold>
      <weakClassifiers>
        <_>
          <internalNodes>
            0 -1 97 -715413937 -167823977 1375786971 2068568815
            -32064553 -1361628257 1667759870 -75255684</internalNodes>
          <leafValues>
            -6.9703036546707153e-01 1.3199999928474426e-01</leafValues></_>
        <_>
          <internalNodes>
            0 -1 62 -37423140 -235925492 303314365 1998128269 -720831830
            -1188164792 182514059 -1682243445</internalNodes>
          <leafValues>
            -5.0737237930297852e-01 3.6551278829574585e-01</leafValues></_>
        <_>
          <internalNodes>
            0 -1 8 -1291913546 2105518782 1585550271 871103279 -77669377
            -18615602 2012125099 2053107890</internalNodes>
          <leafValues>
            -5.7433634996414185e-01 3.4828817844390869e-01</leafValues></_>
        <_>
          <internalNodes>
            0 -1 105 -275341879 -1090949255 -1073812502 1593393005
            -1409286178 -536911881 -4194433 -1770784770</internalNodes>
          <leafValues>
            -4.2482572793960571e-01 4.9294671416282654e-01</leafValues></_>
        <_>
          <internalNodes>
            0 -1 19 1946824317 -93134591 -395977265 1814783343
            -150218066 768018483 1788011322 -1324760811</internalNodes>
          <leafValues>
            -5.4148256778717041e-01 4.2538461089134216e-01</leafValues></_>
        <_>
          <internalNodes>
            0 -1 9 721926799 -88448941 1252456694 -364121657 -1159061799
            -1165268937 1825136963 -755305750</internalNodes>
          <leafValues>
            -5.1928699016571045e-01 4.1386327147483826e-01</leafValues></_>
        <_>
          <internalNodes>
            0 -1 107 1606258416 1568662319 813949310 -574704673
            2066606958 1186718888 1770051679 1394751825</internalNodes>
          <leafValues>
            -7.5158184766769409e-01 2.9960560798645020e-01</leafValues></_></weakClassifiers></_>
    <!-- stage 11 -->
    <_>
      <maxWeakCount>8</maxWeakCount>
      <stageThreshold>-1.9641718864440918e+00</stageThreshold>
      <weakClassifiers>
        <_>
          <internalNodes>
            0 -1 35 -69730309 -744767589 292577237 -199895337 -296244262
            -114931713 -896273426 -473967889</internalNodes>
          <leafValues>
            -6.4907974004745483e-01 2.1573948860168457e-01</leafValues></_>
        <_>
          <internalNodes>
            0 -1 24 1001106146 61440877 -273244802 -1155819281
            2142223139 2128554443 2080373087 259545700</internalNodes>
          <leafValues>
            -8.9718705415725708e-01 1.4003309607505798e-01</leafValues></_>
        <_>
          <internalNodes>
            0 -1 50 -2111176576 -566033920 -1172484719 1060310361
            -1953591384 -539256322 364386748 -1087434817</internalNodes>
          <leafValues>
            -6.7773240804672241e-01 2.3917827010154724e-01</leafValues></_>
        <_>
          <internalNodes>
            0 -1 72 1373602714 1374642394 117658717 -736251273
            2065674914 1406460628 1423740888 -749213026</internalNodes>
          <leafValues>
            -4.6977049112319946e-01 4.0669554471969604e-01</leafValues></_>
        <_>
          <internalNodes>
            0 -1 17 1043750960 726287320 -620242497 236035226 2058092209
            1478599920 2140766115 2103909111</internalNodes>
          <leafValues>
            -8.1224536895751953e-01 2.6667961478233337e-01</leafValues></_>
        <_>
          <internalNodes>
            0 -1 70 -787328848 324174940 -2125987525 386221937
            1091731610 -1996218221 587640255 -1089514741</internalNodes>
          <leafValues>
            -4.8528823256492615e-01 4.2911654710769653e-01</leafValues></_>
        <_>
          <internalNodes>
            0 -1 92 -529079877 -699737771 -31598089 -363661600 -87044386
            -359404918 -272892181 -926091446</internalNodes>
          <leafValues>
            -5.0048226118087769e-01 4.2079216241836548e-01</leafValues></_>
        <_>
          <internalNodes>
            0 -1 94 -1277233678 570102686 438668777 1028330278
            1759941546 1115269517 -1997145709 -74713645</internalNodes>
          <leafValues>
            -5.0544220209121704e-01 4.6592953801155090e-01</leafValues></_></weakClassifiers></_>
    <!-- stage 12 -->
    <_>
      <maxWeakCount>7</maxWeakCount>
      <stageThreshold>-1.3850936889648438e+00</stageThreshold>
      <weakClassifiers>
        <_>
          <internalNodes>
            0 -1 28 -536879877 -136400705 -128981122 2071623415
            -1143125797 -6608249 -1093114117 -404750753</internalNodes>
          <leafValues>
            -6.7029452323913574e-01 1.5693011879920959e-01</leafValues></_>
        <_>
          <internalNodes>
            0 -1 104 1868348134 2074888146 -738828304 2041575572
            -1523885186 -1164337245 1840708247 1232084413</internalNodes>
          <leafValues>
            -8.4120744466781616e-01 1.6062222421169281e-01</leafValues></_>
        <_>
          <internalNodes>
            0 -1 38 -1303174465 991248311 59179058 1035940861 2051780575
            -1223966085 141334783 -1149282405</internalNodes>
          <leafValues>
            -5.2709245681762695e-01 3.4257891774177551e-01</leafValues></_>
        <_>
          <internalNodes>
            0 -1 61 -137899784 -134228381 256375743 493857751 -817160
            -1350930184 1481326491 -1626403941</internalNodes>
          <leafValues>
            -3.9123180508613586e-01 4.9702987074851990e-01</leafValues></_>
        <_>
          <internalNodes>
            0 -1 23 247454646 -1075931395 -835694725 -1966137399
            -96849052 -1145369204 2031966576 1464662870</internalNodes>
          <leafValues>
            -8.1623631715774536e-01 2.2226819396018982e-01</leafValues></_>
        <_>
          <internalNodes>
            0 -1 12 -628116671 750567359 -131074 535756175 -16777499
            805043703 -8396803 -8964301</internalNodes>
          <leafValues>
            -4.3251886963844299e-01 4.6378350257873535e-01</leafValues></_>
        <_>
          <internalNodes>
            0 -1 93 383746759 807329998 1427589470 999134423 1731056118
            -1098646285 383022031 -428871181</internalNodes>
          <leafValues>
            -4.6627506613731384e-01 4.4792646169662476e-01</leafValues></_></weakClassifiers></_>
    <!-- stage 13 -->
    <_>
      <maxWeakCount>8</maxWeakCount>
      <stageThreshold>-1.5369422435760498e+00</stageThreshold>
      <weakClassifiers>
        <_>
          <internalNodes>
            0 -1 69 -69207553 -3949342 36311104 -1882728839 -155024486
            71122944 1458549951 -69210417</internalNodes>
          <leafValues>
            -6.5773713588714600e-01 1.5776698291301727e-01</leafValues></_>
        <_>
          <internalNodes>
            0 -1 99 1851569864 -1212745986 1061935068 2132776638
            -674287746 2019532261 1710178228 87398172</internalNodes>
          <leafValues>
            -8.5864228010177612e-01 1.2812167406082153e-01</leafValues></_>
        <_>
          <internalNodes>
            0 -1 20 -1075921365 -1172663466 -48784258 -1900577129
            -74711059 -1229995714 -618274970 -1434978441</internalNodes>
          <leafValues>
            -4.8931863903999329e-01 3.7319123744964600e-01</leafValues></_>
        <_>
          <internalNodes>
            0 -1 51 -1426151376 776350286 1996180336 -322458369
            -151505132 -273708498 -137956496 -33555982</internalNodes>
          <leafValues>
            -6.9674748182296753e-01 3.0151340365409851e-01</leafValues></_>
        <_>
          <internalNodes>
            0 -1 102 28486378 227266862 -1896691749 544074988 226423816
            -1531211675 2070069247 -201398562</internalNodes>
          <leafValues>
            -5.6621140241622925e-01 3.1713336706161499e-01</leafValues></_>
        <_>
          <internalNodes>
            0 -1 54 -1188031792 -210624940 -1847305865 968366587
            412761018 922043820 767105535 1066140316</internalNodes>
          <leafValues>
            -8.2075524330139160e-01 2.5150138139724731e-01</leafValues></_>
        <_>
          <internalNodes>
            0 -1 79 -1040516936 1344354522 -2126100947 1360224315
            1766931114 -1761392893 91716271 -1154778117</internalNodes>
          <leafValues>
            -4.9039322137832642e-01 4.0539425611495972e-01</leafValues></_>
        <_>
          <internalNodes>
            0 -1 30 778459031 -1855986210 -1852911154 -1226787057
            -537144471 2030798993 -1411941478 268224687</internalNodes>
          <leafValues>
            -7.2650325298309326e-01 2.8229260444641113e-01</leafValues></_></weakClassifiers></_>
    <!-- stage 14 -->
    <_>
      <maxWeakCount>8</maxWeakCount>
      <stageThreshold>-1.4063068628311157e+00</stageThreshold>
      <weakClassifiers>
        <_>
          <internalNodes>
            0 -1 31 -406016209 -1723123234 -826168335 -238071153
            -2393222 -313137030 -36725073 -345031431</internalNodes>
          <leafValues>
            -6.9487982988357544e-01 3.3747781068086624e-02</leafValues></_>
        <_>
          <internalNodes>
            0 -1 6 1819160340 -1570801565 -646612531 1325385166
            -842072178 -774158501 1908440182 972420425</internalNodes>
          <leafValues>
            -8.8230466842651367e-01 1.1644481867551804e-01</leafValues></_>
        <_>
          <internalNodes>
            0 -1 91 -288369598 -205555866 -724898062 -162074517
            1145889486 1115115526 1107489506 -210242697</internalNodes>
          <leafValues>
            -5.3119164705276489e-01 3.0911868810653687e-01</leafValues></_>
        <_>
          <internalNodes>
            0 -1 108 -1428968256 1843287756 1893324126 232586213
            -1198275748 865738916 992885660 1903713783</internalNodes>
          <leafValues>
            -8.1367045640945435e-01 2.3527440428733826e-01</leafValues></_>
        <_>
          <internalNodes>
            0 -1 95 447364642 772126642 22202012 1006100593 111126896
            167769698 2138033655 -1400375451</internalNodes>
          <leafValues>
            -6.1236596107482910e-01 2.7945056557655334e-01</leafValues></_>
        <_>
          <internalNodes>
            0 -1 64 -12190548 -608011776 -2120195943 -1860956159
            -1488921186 812653124 893444795 -418430962</internalNodes>
          <leafValues>
            -4.8995333909988403e-01 3.9564275741577148e-01</leafValues></_>
        <_>
          <internalNodes>
            0 -1 59 -1467859847 -50242184 -1178496513 -605007651
            -1406469958 -285589028 -1412519425 -1960637427</internalNodes>
          <leafValues>
            -4.4681781530380249e-01 4.3996587395668030e-01</leafValues></_>
        <_>
          <internalNodes>
            0 -1 42 -369108414 1114530074 69770 418020218 348113448
            1109911816 2052557911 -707275265</internalNodes>
          <leafValues>
            -5.9205192327499390e-01 3.4022098779678345e-01</leafValues></_></weakClassifiers></_>
    <!-- stage 15 -->
    <_>
      <maxWeakCount>6</maxWeakCount>
      <stageThreshold>-1.2190278768539429e+00</stageThreshold>
      <weakClassifiers>
        <_>
          <internalNodes>
            0 -1 98 -604031246 -608210050 1440174963 497900889 -73486409
            -1093148561 2124676060 -768672914</internalNodes>
          <leafValues>
            -7.1480536460876465e-01 6.4102564938366413e-03</leafValues></_>
        <_>
          <internalNodes>
            0 -1 27 1049481979 530204252 -132254979 2079059140
            -103309378 1292618375 863709101 -151225370</internalNodes>
          <leafValues>
            -4.4558787345886230e-01 3.8693273067474365e-01</leafValues></_>
        <_>
          <internalNodes>
            0 -1 11 -823331610 -1486261398 -678176322 305326463
            -270101513 1458483944 182714239 1700230647</internalNodes>
          <leafValues>
            -7.6565647125244141e-01 2.5204277038574219e-01</leafValues></_>
        <_>
          <internalNodes>
            0 -1 26 254960191 -551585642 1980190207 654131870 2072866891
            -1182087112 1596802163 -1887704327</internalNodes>
          <leafValues>
            -5.0372380018234253e-01 3.7286591529846191e-01</leafValues></_>
        <_>
          <internalNodes>
            0 -1 86 -1415774558 -1909520338 -1290029872 -2121147
            161478874 -1932489592 352404881 1442149877</internalNodes>
          <leafValues>
            -7.6578944921493530e-01 2.3675096035003662e-01</leafValues></_>
        <_>
          <internalNodes>
            0 -1 78 -7933558 -47621552 -770438576 830148989 1073801389
            593941 638034127 903845531</internalNodes>
          <leafValues>
            -7.1248984336853027e-01 2.3762023448944092e-01</leafValues></_></weakClassifiers></_></stages>
  <features>
    <_>
      <rect>
        0 0 11 11</rect></_>
    <_>
      <rect>
        0 1 16 4</rect></_>
    <_>
      <rect>
        0 2 2 1</rect></_>
    <_>
      <rect>
        0 3 5 5</rect></_>
    <_>
      <rect>
        0 4 1 1</rect></_>
    <_>
      <rect>
        0 4 16 9</rect></_>
    <_>
      <rect>
        0 9 1 1</rect></_>
    <_>
      <rect>
        0 15 5 7</rect></_>
    <_>
      <rect>
        0 24 1 1</rect></_>
    <_>
      <rect>
        0 26 3 2</rect></_>
    <_>
      <rect>
        0 29 1 1</rect></_>
    <_>
      <rect>
        0 33 1 1</rect></_>
    <_>
      <rect>
        1 0 2 2</rect></_>
    <_>
      <rect>
        1 0 8 9</rect></_>
    <_>
      <rect>
        1 1 1 1</rect></_>
    <_>
      <rect>
        1 10 7 5</rect></_>
    <_>
      <rect>
        1 30 1 2</rect></_>
    <_>
      <rect>
        2 0 2 1</rect></_>
    <_>
      <rect>
        2 1 2 4</rect></_>
    <_>
      <rect>
        2 2 2 3</rect></_>
    <_>
      <rect>
        2 3 2 1</rect></_>
    <_>
      <rect>
        2 6 6 10</rect></_>
    <_>
      <rect>
        2 21 4 5</rect></_>
    <_>
      <rect>
        2 32 2 1</rect></_>
    <_>
      <rect>
        3 1 1 1</rect></_>
    <_>
      <rect>
        3 4 8 4</rect></_>
    <_>
      <rect>
        3 29 2 2</rect></_>
    <_>
      <rect>
        4 0 1 1</rect></_>
    <_>
      <rect>
        4 31 1 1</rect></_>
    <_>
      <rect>
        4 32 1 1</rect></_>
    <_>
      <rect>
        5 0 1 1</rect></_>
    <_>
      <rect>
        5 3 2 1</rect></_>
    <_>
      <rect>
        5 6 12 8</rect></_>
    <_>
      <rect>
        5 16 8 6</rect></_>
    <_>
      <rect>
        6 21 14 5</rect></_>
    <_>
      <rect>
        7 1 1 1</rect></_>
    <_>
      <rect>
        8 0 5 7</rect></_>
    <_>
      <rect>
        8 2 7 7</rect></_>
    <_>
      <rect>
        8 12 11 8</rect></_>
    <_>
      <rect>
        9 15 7 6</rect></_>
    <_>
      <rect>
        10 5 6 4</rect></_>
    <_>
      <rect>
        10 11 4 7</rect></_>
    <_>
      <rect>
        10 14 2 3</rect></_>
    <_>
      <rect>
        11 13 3 5</rect></_>
    <_>
      <rect>
        12 6 3 3</rect></_>
    <_>
      <rect>
        12 6 8 10</rect></_>
    <_>
      <rect>
        12 13 4 7</rect></_>
    <_>
      <rect>
        13 0 7 7</rect></_>
    <_>
      <rect>
        15 3 7 8</rect></_>
    <_>
      <rect>
        18 4 4 3</rect></_>
    <_>
      <rect>
        18 6 4 2</rect></_>
    <_>
      <rect>
        18 13 5 3</rect></_>
    <_>
      <rect>
        18 16 7 5</rect></_>
    <_>
      <rect>
        18 20 4 5</rect></_>
    <_>
      <rect>
        19 1 4 4</rect></_>
    <_>
      <rect>
        19 17 3 1</rect></_>
    <_>
      <rect>
        19 17 6 5</rect></_>
    <_>
      <rect>
        19 20 9 4</rect></_>
    <_>
      <rect>
        19 23 4 3</rect></_>
    <_>
      <rect>
        19 26 3 2</rect></_>
    <_>
      <rect>
        20 16 3 1</rect></_>
    <_>
      <rect>
        20 17 3 1</rect></_>
    <_>
      <rect>
        20 18 2 1</rect></_>
    <_>
      <rect>
        21 2 7 6</rect></_>
    <_>
      <rect>
        21 16 1 1</rect></_>
    <_>
      <rect>
        21 17 1 1</rect></_>
    <_>
      <rect>
        21 17 3 1</rect></_>
    <_>
      <rect>
        22 13 1 2</rect></_>
    <_>
      <rect>
        22 15 1 2</rect></_>
    <_>
      <rect>
        22 17 1 3</rect></_>
    <_>
      <rect>
        22 21 2 1</rect></_>
    <_>
      <rect>
        23 1 7 5</rect></_>
    <_>
      <rect>
        23 12 1 5</rect></_>
    <_>
      <rect>
        23 13 1 3</rect></_>
    <_>
      <rect>
        23 13 1 4</rect></_>
    <_>
      <rect>
        23 15 1 2</rect></_>
    <_>
      <rect>
        23 15 5 6</rect></_>
    <_>
      <rect>
        23 16 1 2</rect></_>
    <_>
      <rect>
        23 17 1 1</rect></_>
    <_>
      <rect>
        23 21 1 1</rect></_>
    <_>
      <rect>
        24 15 1 1</rect></_>
    <_>
      <rect>
        24 16 2 1</rect></_>
    <_>
      <rect>
        24 18 1 1</rect></_>
    <_>
      <rect>
        24 19 1 1</rect></_>
    <_>
      <rect>
        26 10 7 8</rect></_>
    <_>
      <rect>
        27 0 7 4</rect></_>
    <_>
      <rect>
        27 22 4 3</rect></_>
    <_>
      <rect>
        28 11 3 6</rect></_>
    <_>
      <rect>
        29 0 6 9</rect></_>
    <_>
      <rect>
        29 11 3 4</rect></_>
    <_>
      <rect>
        29 15 6 4</rect></_>
    <_>
      <rect>
        32 11 2 4</rect></_>
    <_>
      <rect>
        33 1 5 5</rect></_>
    <_>
      <rect>
        35 32 3 1</rect></_>
    <_>
      <rect>
        35 33 2 1</rect></_>
    <_>
      <rect>
        36 29 3 2</rect></_>
    <_>
      <rect>
        37 33 2 1</rect></_>
    <_>
      <rect>
        40 0 1 1</rect></_>
    <_>
      <rect>
        40 33 1 1</rect></_>
    <_>
      <rect>
        41 33 1 1</rect></_>
    <_>
      <rect>
        41 33 2 1</rect></_>
    <_>
      <rect>
        42 0 1 1</rect></_>
    <_>
      <rect>
        42 18 2 2</rect></_>
    <_>
      <rect>
        42 33 1 1</rect></_>
    <_>
      <rect>
        43 3 1 1</rect></_>
    <_>
      <rect>
        43 31 1 1</rect></_>
    <_>
      <rect>
        44 30 1 1</rect></_>
    <_>
      <rect>
        45 30 1 2</rect></_>
    <_>
      <rect>
        45 32 1 1</rect></_></features></cascade>
</opencv_storage>
